digraph Tree {
node [shape=box] ;
0 [label="X[7] <= 0.5\nentropy = 0.961\nsamples = 891\nvalue = [549, 342]"] ;
1 [label="X[4] <= 26.269\nentropy = 0.699\nsamples = 577\nvalue = [468, 109]"] ;
0 -> 1 [labeldistance=2.5, labelangle=45, headlabel="True"] ;
2 [label="X[0] <= 13.5\nentropy = 0.558\nsamples = 415\nvalue = [361, 54]"] ;
1 -> 2 ;
3 [label="X[9] <= 2.0\nentropy = 0.567\nsamples = 15\nvalue = [2, 13]"] ;
2 -> 3 ;
4 [label="X[0] <= 10.0\nentropy = 0.371\nsamples = 14\nvalue = [1, 13]"] ;
3 -> 4 ;
5 [label="entropy = 0.0\nsamples = 12\nvalue = [0, 12]"] ;
4 -> 5 ;
6 [label="X[0] <= 11.5\nentropy = 1.0\nsamples = 2\nvalue = [1, 1]"] ;
4 -> 6 ;
7 [label="entropy = 0.0\nsamples = 1\nvalue = [1, 0]"] ;
6 -> 7 ;
8 [label="entropy = 0.0\nsamples = 1\nvalue = [0, 1]"] ;
6 -> 8 ;
9 [label="entropy = 0.0\nsamples = 1\nvalue = [1, 0]"] ;
3 -> 9 ;
10 [label="X[1] <= 0.5\nentropy = 0.477\nsamples = 400\nvalue = [359, 41]"] ;
2 -> 10 ;
11 [label="X[4] <= 13.25\nentropy = 0.437\nsamples = 355\nvalue = [323, 32]"] ;
10 -> 11 ;
12 [label="X[4] <= 7.91\nentropy = 0.479\nsamples = 291\nvalue = [261, 30]"] ;
11 -> 12 ;
13 [label="X[4] <= 7.865\nentropy = 0.353\nsamples = 150\nvalue = [140, 10]"] ;
12 -> 13 ;
14 [label="X[0] <= 32.5\nentropy = 0.424\nsamples = 116\nvalue = [106, 10]"] ;
13 -> 14 ;
15 [label="X[0] <= 20.75\nentropy = 0.507\nsamples = 89\nvalue = [79, 10]"] ;
14 -> 15 ;
16 [label="entropy = 0.0\nsamples = 16\nvalue = [16, 0]"] ;
15 -> 16 ;
17 [label="X[4] <= 7.763\nentropy = 0.576\nsamples = 73\nvalue = [63, 10]"] ;
15 -> 17 ;
18 [label="X[0] <= 29.35\nentropy = 0.451\nsamples = 53\nvalue = [48, 5]"] ;
17 -> 18 ;
19 [label="X[4] <= 7.01\nentropy = 0.742\nsamples = 19\nvalue = [15, 4]"] ;
18 -> 19 ;
20 [label="entropy = 0.0\nsamples = 2\nvalue = [0, 2]"] ;
19 -> 20 ;
21 [label="X[4] <= 7.746\nentropy = 0.523\nsamples = 17\nvalue = [15, 2]"] ;
19 -> 21 ;
22 [label="X[4] <= 7.196\nentropy = 0.337\nsamples = 16\nvalue = [15, 1]"] ;
21 -> 22 ;
23 [label="X[4] <= 7.133\nentropy = 0.65\nsamples = 6\nvalue = [5, 1]"] ;
22 -> 23 ;
24 [label="entropy = 0.0\nsamples = 5\nvalue = [5, 0]"] ;
23 -> 24 ;
25 [label="entropy = 0.0\nsamples = 1\nvalue = [0, 1]"] ;
23 -> 25 ;
26 [label="entropy = 0.0\nsamples = 10\nvalue = [10, 0]"] ;
22 -> 26 ;
27 [label="entropy = 0.0\nsamples = 1\nvalue = [0, 1]"] ;
21 -> 27 ;
28 [label="X[4] <= 7.744\nentropy = 0.191\nsamples = 34\nvalue = [33, 1]"] ;
18 -> 28 ;
29 [label="entropy = 0.0\nsamples = 21\nvalue = [21, 0]"] ;
28 -> 29 ;
30 [label="X[0] <= 30.35\nentropy = 0.391\nsamples = 13\nvalue = [12, 1]"] ;
28 -> 30 ;
31 [label="X[9] <= 0.5\nentropy = 0.439\nsamples = 11\nvalue = [10, 1]"] ;
30 -> 31 ;
32 [label="entropy = 0.469\nsamples = 10\nvalue = [9, 1]"] ;
31 -> 32 ;
33 [label="entropy = 0.0\nsamples = 1\nvalue = [1, 0]"] ;
31 -> 33 ;
34 [label="entropy = 0.0\nsamples = 2\nvalue = [2, 0]"] ;
30 -> 34 ;
35 [label="X[0] <= 31.5\nentropy = 0.811\nsamples = 20\nvalue = [15, 5]"] ;
17 -> 35 ;
36 [label="X[4] <= 7.798\nentropy = 0.742\nsamples = 19\nvalue = [15, 4]"] ;
35 -> 36 ;
37 [label="X[0] <= 30.35\nentropy = 0.89\nsamples = 13\nvalue = [9, 4]"] ;
36 -> 37 ;
38 [label="X[9] <= 0.5\nentropy = 0.918\nsamples = 12\nvalue = [8, 4]"] ;
37 -> 38 ;
39 [label="X[4] <= 7.785\nentropy = 0.881\nsamples = 10\nvalue = [7, 3]"] ;
38 -> 39 ;
40 [label="X[0] <= 29.35\nentropy = 0.722\nsamples = 5\nvalue = [4, 1]"] ;
39 -> 40 ;
41 [label="entropy = 0.0\nsamples = 3\nvalue = [3, 0]"] ;
40 -> 41 ;
42 [label="entropy = 1.0\nsamples = 2\nvalue = [1, 1]"] ;
40 -> 42 ;
43 [label="X[0] <= 21.5\nentropy = 0.971\nsamples = 5\nvalue = [3, 2]"] ;
39 -> 43 ;
44 [label="entropy = 0.0\nsamples = 1\nvalue = [0, 1]"] ;
43 -> 44 ;
45 [label="X[0] <= 25.5\nentropy = 0.811\nsamples = 4\nvalue = [3, 1]"] ;
43 -> 45 ;
46 [label="entropy = 0.0\nsamples = 2\nvalue = [2, 0]"] ;
45 -> 46 ;
47 [label="X[0] <= 27.5\nentropy = 1.0\nsamples = 2\nvalue = [1, 1]"] ;
45 -> 47 ;
48 [label="entropy = 0.0\nsamples = 1\nvalue = [0, 1]"] ;
47 -> 48 ;
49 [label="entropy = 0.0\nsamples = 1\nvalue = [1, 0]"] ;
47 -> 49 ;
50 [label="entropy = 1.0\nsamples = 2\nvalue = [1, 1]"] ;
38 -> 50 ;
51 [label="entropy = 0.0\nsamples = 1\nvalue = [1, 0]"] ;
37 -> 51 ;
52 [label="entropy = 0.0\nsamples = 6\nvalue = [6, 0]"] ;
36 -> 52 ;
53 [label="entropy = 0.0\nsamples = 1\nvalue = [0, 1]"] ;
35 -> 53 ;
54 [label="entropy = 0.0\nsamples = 27\nvalue = [27, 0]"] ;
14 -> 54 ;
55 [label="entropy = 0.0\nsamples = 34\nvalue = [34, 0]"] ;
13 -> 55 ;
56 [label="X[4] <= 7.988\nentropy = 0.589\nsamples = 141\nvalue = [121, 20]"] ;
12 -> 56 ;
57 [label="X[9] <= 1.5\nentropy = 0.961\nsamples = 13\nvalue = [8, 5]"] ;
56 -> 57 ;
58 [label="X[0] <= 41.5\nentropy = 0.994\nsamples = 11\nvalue = [6, 5]"] ;
57 -> 58 ;
59 [label="X[9] <= 0.5\nentropy = 0.971\nsamples = 10\nvalue = [6, 4]"] ;
58 -> 59 ;
60 [label="X[0] <= 26.0\nentropy = 0.918\nsamples = 9\nvalue = [6, 3]"] ;
59 -> 60 ;
61 [label="entropy = 0.0\nsamples = 3\nvalue = [3, 0]"] ;
60 -> 61 ;
62 [label="X[0] <= 31.5\nentropy = 1.0\nsamples = 6\nvalue = [3, 3]"] ;
60 -> 62 ;
63 [label="entropy = 0.0\nsamples = 1\nvalue = [0, 1]"] ;
62 -> 63 ;
64 [label="X[0] <= 35.5\nentropy = 0.971\nsamples = 5\nvalue = [3, 2]"] ;
62 -> 64 ;
65 [label="entropy = 0.918\nsamples = 3\nvalue = [2, 1]"] ;
64 -> 65 ;
66 [label="entropy = 1.0\nsamples = 2\nvalue = [1, 1]"] ;
64 -> 66 ;
67 [label="entropy = 0.0\nsamples = 1\nvalue = [0, 1]"] ;
59 -> 67 ;
68 [label="entropy = 0.0\nsamples = 1\nvalue = [0, 1]"] ;
58 -> 68 ;
69 [label="entropy = 0.0\nsamples = 2\nvalue = [2, 0]"] ;
57 -> 69 ;
70 [label="X[0] <= 19.5\nentropy = 0.521\nsamples = 128\nvalue = [113, 15]"] ;
56 -> 70 ;
71 [label="X[4] <= 8.104\nentropy = 0.722\nsamples = 20\nvalue = [16, 4]"] ;
70 -> 71 ;
72 [label="X[0] <= 17.0\nentropy = 0.971\nsamples = 5\nvalue = [2, 3]"] ;
71 -> 72 ;
73 [label="entropy = 1.0\nsamples = 2\nvalue = [1, 1]"] ;
72 -> 73 ;
74 [label="X[0] <= 18.5\nentropy = 0.918\nsamples = 3\nvalue = [1, 2]"] ;
72 -> 74 ;
75 [label="entropy = 0.0\nsamples = 1\nvalue = [0, 1]"] ;
74 -> 75 ;
76 [label="entropy = 1.0\nsamples = 2\nvalue = [1, 1]"] ;
74 -> 76 ;
77 [label="X[0] <= 18.5\nentropy = 0.353\nsamples = 15\nvalue = [14, 1]"] ;
71 -> 77 ;
78 [label="entropy = 0.0\nsamples = 10\nvalue = [10, 0]"] ;
77 -> 78 ;
79 [label="X[4] <= 10.335\nentropy = 0.722\nsamples = 5\nvalue = [4, 1]"] ;
77 -> 79 ;
80 [label="entropy = 0.0\nsamples = 2\nvalue = [2, 0]"] ;
79 -> 80 ;
81 [label="X[4] <= 11.75\nentropy = 0.918\nsamples = 3\nvalue = [2, 1]"] ;
79 -> 81 ;
82 [label="entropy = 1.0\nsamples = 2\nvalue = [1, 1]"] ;
81 -> 82 ;
83 [label="entropy = 0.0\nsamples = 1\nvalue = [1, 0]"] ;
81 -> 83 ;
84 [label="X[0] <= 26.5\nentropy = 0.475\nsamples = 108\nvalue = [97, 11]"] ;
70 -> 84 ;
85 [label="entropy = 0.0\nsamples = 31\nvalue = [31, 0]"] ;
84 -> 85 ;
86 [label="X[4] <= 8.081\nentropy = 0.592\nsamples = 77\nvalue = [66, 11]"] ;
84 -> 86 ;
87 [label="X[0] <= 31.25\nentropy = 0.371\nsamples = 28\nvalue = [26, 2]"] ;
86 -> 87 ;
88 [label="entropy = 0.0\nsamples = 16\nvalue = [16, 0]"] ;
87 -> 88 ;
89 [label="X[0] <= 33.0\nentropy = 0.65\nsamples = 12\nvalue = [10, 2]"] ;
87 -> 89 ;
90 [label="entropy = 0.0\nsamples = 1\nvalue = [0, 1]"] ;
89 -> 90 ;
91 [label="X[0] <= 44.5\nentropy = 0.439\nsamples = 11\nvalue = [10, 1]"] ;
89 -> 91 ;
92 [label="entropy = 0.0\nsamples = 7\nvalue = [7, 0]"] ;
91 -> 92 ;
93 [label="X[0] <= 47.5\nentropy = 0.811\nsamples = 4\nvalue = [3, 1]"] ;
91 -> 93 ;
94 [label="entropy = 0.0\nsamples = 1\nvalue = [0, 1]"] ;
93 -> 94 ;
95 [label="entropy = 0.0\nsamples = 3\nvalue = [3, 0]"] ;
93 -> 95 ;
96 [label="X[4] <= 8.238\nentropy = 0.688\nsamples = 49\nvalue = [40, 9]"] ;
86 -> 96 ;
97 [label="entropy = 0.0\nsamples = 1\nvalue = [0, 1]"] ;
96 -> 97 ;
98 [label="X[4] <= 8.658\nentropy = 0.65\nsamples = 48\nvalue = [40, 8]"] ;
96 -> 98 ;
99 [label="entropy = 0.0\nsamples = 4\nvalue = [4, 0]"] ;
98 -> 99 ;
100 [label="X[0] <= 31.5\nentropy = 0.684\nsamples = 44\nvalue = [36, 8]"] ;
98 -> 100 ;
101 [label="X[4] <= 10.0\nentropy = 0.811\nsamples = 20\nvalue = [15, 5]"] ;
100 -> 101 ;
102 [label="X[0] <= 27.5\nentropy = 0.954\nsamples = 8\nvalue = [5, 3]"] ;
101 -> 102 ;
103 [label="entropy = 0.0\nsamples = 1\nvalue = [0, 1]"] ;
102 -> 103 ;
104 [label="X[0] <= 29.85\nentropy = 0.863\nsamples = 7\nvalue = [5, 2]"] ;
102 -> 104 ;
105 [label="X[0] <= 28.5\nentropy = 0.65\nsamples = 6\nvalue = [5, 1]"] ;
104 -> 105 ;
106 [label="entropy = 0.0\nsamples = 2\nvalue = [2, 0]"] ;
105 -> 106 ;
107 [label="X[0] <= 29.35\nentropy = 0.811\nsamples = 4\nvalue = [3, 1]"] ;
105 -> 107 ;
108 [label="X[4] <= 9.492\nentropy = 1.0\nsamples = 2\nvalue = [1, 1]"] ;
107 -> 108 ;
109 [label="entropy = 0.0\nsamples = 1\nvalue = [1, 0]"] ;
108 -> 109 ;
110 [label="entropy = 0.0\nsamples = 1\nvalue = [0, 1]"] ;
108 -> 110 ;
111 [label="entropy = 0.0\nsamples = 2\nvalue = [2, 0]"] ;
107 -> 111 ;
112 [label="entropy = 0.0\nsamples = 1\nvalue = [0, 1]"] ;
104 -> 112 ;
113 [label="X[0] <= 29.35\nentropy = 0.65\nsamples = 12\nvalue = [10, 2]"] ;
101 -> 113 ;
114 [label="entropy = 0.0\nsamples = 5\nvalue = [5, 0]"] ;
113 -> 114 ;
115 [label="X[0] <= 29.85\nentropy = 0.863\nsamples = 7\nvalue = [5, 2]"] ;
113 -> 115 ;
116 [label="entropy = 0.0\nsamples = 1\nvalue = [0, 1]"] ;
115 -> 116 ;
117 [label="X[0] <= 30.5\nentropy = 0.65\nsamples = 6\nvalue = [5, 1]"] ;
115 -> 117 ;
118 [label="entropy = 0.0\nsamples = 4\nvalue = [4, 0]"] ;
117 -> 118 ;
119 [label="X[4] <= 11.75\nentropy = 1.0\nsamples = 2\nvalue = [1, 1]"] ;
117 -> 119 ;
120 [label="entropy = 0.0\nsamples = 1\nvalue = [1, 0]"] ;
119 -> 120 ;
121 [label="entropy = 0.0\nsamples = 1\nvalue = [0, 1]"] ;
119 -> 121 ;
122 [label="X[6] <= 2.5\nentropy = 0.544\nsamples = 24\nvalue = [21, 3]"] ;
100 -> 122 ;
123 [label="X[0] <= 59.5\nentropy = 0.61\nsamples = 20\nvalue = [17, 3]"] ;
122 -> 123 ;
124 [label="X[4] <= 12.762\nentropy = 0.523\nsamples = 17\nvalue = [15, 2]"] ;
123 -> 124 ;
125 [label="entropy = 0.0\nsamples = 6\nvalue = [6, 0]"] ;
124 -> 125 ;
126 [label="X[0] <= 45.0\nentropy = 0.684\nsamples = 11\nvalue = [9, 2]"] ;
124 -> 126 ;
127 [label="X[0] <= 40.5\nentropy = 0.811\nsamples = 8\nvalue = [6, 2]"] ;
126 -> 127 ;
128 [label="X[0] <= 35.0\nentropy = 0.65\nsamples = 6\nvalue = [5, 1]"] ;
127 -> 128 ;
129 [label="entropy = 0.918\nsamples = 3\nvalue = [2, 1]"] ;
128 -> 129 ;
130 [label="entropy = 0.0\nsamples = 3\nvalue = [3, 0]"] ;
128 -> 130 ;
131 [label="entropy = 1.0\nsamples = 2\nvalue = [1, 1]"] ;
127 -> 131 ;
132 [label="entropy = 0.0\nsamples = 3\nvalue = [3, 0]"] ;
126 -> 132 ;
133 [label="X[0] <= 64.0\nentropy = 0.918\nsamples = 3\nvalue = [2, 1]"] ;
123 -> 133 ;
134 [label="entropy = 0.0\nsamples = 1\nvalue = [0, 1]"] ;
133 -> 134 ;
135 [label="entropy = 0.0\nsamples = 2\nvalue = [2, 0]"] ;
133 -> 135 ;
136 [label="entropy = 0.0\nsamples = 4\nvalue = [4, 0]"] ;
122 -> 136 ;
137 [label="X[4] <= 22.887\nentropy = 0.201\nsamples = 64\nvalue = [62, 2]"] ;
11 -> 137 ;
138 [label="entropy = 0.0\nsamples = 37\nvalue = [37, 0]"] ;
137 -> 138 ;
139 [label="X[4] <= 23.35\nentropy = 0.381\nsamples = 27\nvalue = [25, 2]"] ;
137 -> 139 ;
140 [label="entropy = 0.0\nsamples = 1\nvalue = [0, 1]"] ;
139 -> 140 ;
141 [label="X[0] <= 33.0\nentropy = 0.235\nsamples = 26\nvalue = [25, 1]"] ;
139 -> 141 ;
142 [label="X[0] <= 31.5\nentropy = 0.414\nsamples = 12\nvalue = [11, 1]"] ;
141 -> 142 ;
143 [label="entropy = 0.0\nsamples = 11\nvalue = [11, 0]"] ;
142 -> 143 ;
144 [label="entropy = 0.0\nsamples = 1\nvalue = [0, 1]"] ;
142 -> 144 ;
145 [label="entropy = 0.0\nsamples = 14\nvalue = [14, 0]"] ;
141 -> 145 ;
146 [label="X[4] <= 15.148\nentropy = 0.722\nsamples = 45\nvalue = [36, 9]"] ;
10 -> 146 ;
147 [label="X[0] <= 29.85\nentropy = 0.552\nsamples = 39\nvalue = [34, 5]"] ;
146 -> 147 ;
148 [label="X[4] <= 14.158\nentropy = 0.65\nsamples = 30\nvalue = [25, 5]"] ;
147 -> 148 ;
149 [label="X[4] <= 11.287\nentropy = 0.722\nsamples = 25\nvalue = [20, 5]"] ;
148 -> 149 ;
150 [label="X[0] <= 29.35\nentropy = 0.65\nsamples = 24\nvalue = [20, 4]"] ;
149 -> 150 ;
151 [label="X[4] <= 7.562\nentropy = 0.881\nsamples = 10\nvalue = [7, 3]"] ;
150 -> 151 ;
152 [label="X[0] <= 22.75\nentropy = 0.764\nsamples = 9\nvalue = [7, 2]"] ;
151 -> 152 ;
153 [label="X[0] <= 18.5\nentropy = 0.918\nsamples = 6\nvalue = [4, 2]"] ;
152 -> 153 ;
154 [label="entropy = 0.0\nsamples = 2\nvalue = [2, 0]"] ;
153 -> 154 ;
155 [label="X[4] <= 5.619\nentropy = 1.0\nsamples = 4\nvalue = [2, 2]"] ;
153 -> 155 ;
156 [label="entropy = 0.0\nsamples = 1\nvalue = [1, 0]"] ;
155 -> 156 ;
157 [label="X[4] <= 7.227\nentropy = 0.918\nsamples = 3\nvalue = [1, 2]"] ;
155 -> 157 ;
158 [label="entropy = 0.0\nsamples = 1\nvalue = [0, 1]"] ;
157 -> 158 ;
159 [label="X[0] <= 21.0\nentropy = 1.0\nsamples = 2\nvalue = [1, 1]"] ;
157 -> 159 ;
160 [label="entropy = 0.0\nsamples = 1\nvalue = [0, 1]"] ;
159 -> 160 ;
161 [label="entropy = 0.0\nsamples = 1\nvalue = [1, 0]"] ;
159 -> 161 ;
162 [label="entropy = 0.0\nsamples = 3\nvalue = [3, 0]"] ;
152 -> 162 ;
163 [label="entropy = 0.0\nsamples = 1\nvalue = [0, 1]"] ;
151 -> 163 ;
164 [label="X[4] <= 7.227\nentropy = 0.371\nsamples = 14\nvalue = [13, 1]"] ;
150 -> 164 ;
165 [label="entropy = 0.0\nsamples = 5\nvalue = [5, 0]"] ;
164 -> 165 ;
166 [label="X[4] <= 7.562\nentropy = 0.503\nsamples = 9\nvalue = [8, 1]"] ;
164 -> 166 ;
167 [label="entropy = 0.65\nsamples = 6\nvalue = [5, 1]"] ;
166 -> 167 ;
168 [label="entropy = 0.0\nsamples = 3\nvalue = [3, 0]"] ;
166 -> 168 ;
169 [label="entropy = 0.0\nsamples = 1\nvalue = [0, 1]"] ;
149 -> 169 ;
170 [label="entropy = 0.0\nsamples = 5\nvalue = [5, 0]"] ;
148 -> 170 ;
171 [label="entropy = 0.0\nsamples = 9\nvalue = [9, 0]"] ;
147 -> 171 ;
172 [label="X[4] <= 20.233\nentropy = 0.918\nsamples = 6\nvalue = [2, 4]"] ;
146 -> 172 ;
173 [label="entropy = 0.0\nsamples = 4\nvalue = [0, 4]"] ;
172 -> 173 ;
174 [label="entropy = 0.0\nsamples = 2\nvalue = [2, 0]"] ;
172 -> 174 ;
175 [label="X[9] <= 2.5\nentropy = 0.924\nsamples = 162\nvalue = [107, 55]"] ;
1 -> 175 ;
176 [label="X[0] <= 13.5\nentropy = 0.964\nsamples = 139\nvalue = [85, 54]"] ;
175 -> 176 ;
177 [label="entropy = 0.0\nsamples = 7\nvalue = [0, 7]"] ;
176 -> 177 ;
178 [label="X[4] <= 26.469\nentropy = 0.939\nsamples = 132\nvalue = [85, 47]"] ;
176 -> 178 ;
179 [label="entropy = 0.0\nsamples = 4\nvalue = [0, 4]"] ;
178 -> 179 ;
180 [label="X[0] <= 53.0\nentropy = 0.921\nsamples = 128\nvalue = [85, 43]"] ;
178 -> 180 ;
181 [label="X[4] <= 26.775\nentropy = 0.956\nsamples = 106\nvalue = [66, 40]"] ;
180 -> 181 ;
182 [label="X[0] <= 46.5\nentropy = 0.764\nsamples = 9\nvalue = [2, 7]"] ;
181 -> 182 ;
183 [label="X[0] <= 28.85\nentropy = 0.863\nsamples = 7\nvalue = [2, 5]"] ;
182 -> 183 ;
184 [label="entropy = 0.0\nsamples = 1\nvalue = [0, 1]"] ;
183 -> 184 ;
185 [label="X[1] <= 0.5\nentropy = 0.918\nsamples = 6\nvalue = [2, 4]"] ;
183 -> 185 ;
186 [label="X[0] <= 31.85\nentropy = 0.971\nsamples = 5\nvalue = [2, 3]"] ;
185 -> 186 ;
187 [label="entropy = 1.0\nsamples = 2\nvalue = [1, 1]"] ;
186 -> 187 ;
188 [label="X[0] <= 39.5\nentropy = 0.918\nsamples = 3\nvalue = [1, 2]"] ;
186 -> 188 ;
189 [label="entropy = 0.0\nsamples = 1\nvalue = [0, 1]"] ;
188 -> 189 ;
190 [label="entropy = 1.0\nsamples = 2\nvalue = [1, 1]"] ;
188 -> 190 ;
191 [label="entropy = 0.0\nsamples = 1\nvalue = [0, 1]"] ;
185 -> 191 ;
192 [label="entropy = 0.0\nsamples = 2\nvalue = [0, 2]"] ;
182 -> 192 ;
193 [label="X[4] <= 29.1\nentropy = 0.925\nsamples = 97\nvalue = [64, 33]"] ;
181 -> 193 ;
194 [label="entropy = 0.0\nsamples = 9\nvalue = [9, 0]"] ;
193 -> 194 ;
195 [label="X[4] <= 30.598\nentropy = 0.954\nsamples = 88\nvalue = [55, 33]"] ;
193 -> 195 ;
196 [label="X[4] <= 30.285\nentropy = 0.881\nsamples = 10\nvalue = [3, 7]"] ;
195 -> 196 ;
197 [label="X[0] <= 31.1\nentropy = 1.0\nsamples = 6\nvalue = [3, 3]"] ;
196 -> 197 ;
198 [label="X[1] <= 0.5\nentropy = 0.811\nsamples = 4\nvalue = [1, 3]"] ;
197 -> 198 ;
199 [label="X[0] <= 29.35\nentropy = 1.0\nsamples = 2\nvalue = [1, 1]"] ;
198 -> 199 ;
200 [label="entropy = 0.0\nsamples = 1\nvalue = [1, 0]"] ;
199 -> 200 ;
201 [label="entropy = 0.0\nsamples = 1\nvalue = [0, 1]"] ;
199 -> 201 ;
202 [label="entropy = 0.0\nsamples = 2\nvalue = [0, 2]"] ;
198 -> 202 ;
203 [label="entropy = 0.0\nsamples = 2\nvalue = [2, 0]"] ;
197 -> 203 ;
204 [label="entropy = 0.0\nsamples = 4\nvalue = [0, 4]"] ;
196 -> 204 ;
205 [label="X[4] <= 52.277\nentropy = 0.918\nsamples = 78\nvalue = [52, 26]"] ;
195 -> 205 ;
206 [label="X[0] <= 47.5\nentropy = 0.619\nsamples = 26\nvalue = [22, 4]"] ;
205 -> 206 ;
207 [label="X[4] <= 36.125\nentropy = 0.529\nsamples = 25\nvalue = [22, 3]"] ;
206 -> 207 ;
208 [label="X[4] <= 35.25\nentropy = 0.845\nsamples = 11\nvalue = [8, 3]"] ;
207 -> 208 ;
209 [label="X[3] <= 0.5\nentropy = 0.544\nsamples = 8\nvalue = [7, 1]"] ;
208 -> 209 ;
210 [label="X[4] <= 30.848\nentropy = 1.0\nsamples = 2\nvalue = [1, 1]"] ;
209 -> 210 ;
211 [label="entropy = 0.0\nsamples = 1\nvalue = [1, 0]"] ;
210 -> 211 ;
212 [label="entropy = 0.0\nsamples = 1\nvalue = [0, 1]"] ;
210 -> 212 ;
213 [label="entropy = 0.0\nsamples = 6\nvalue = [6, 0]"] ;
209 -> 213 ;
214 [label="X[0] <= 37.35\nentropy = 0.918\nsamples = 3\nvalue = [1, 2]"] ;
208 -> 214 ;
215 [label="entropy = 0.0\nsamples = 2\nvalue = [0, 2]"] ;
214 -> 215 ;
216 [label="entropy = 0.0\nsamples = 1\nvalue = [1, 0]"] ;
214 -> 216 ;
217 [label="entropy = 0.0\nsamples = 14\nvalue = [14, 0]"] ;
207 -> 217 ;
218 [label="entropy = 0.0\nsamples = 1\nvalue = [0, 1]"] ;
206 -> 218 ;
219 [label="X[4] <= 59.087\nentropy = 0.983\nsamples = 52\nvalue = [30, 22]"] ;
205 -> 219 ;
220 [label="X[0] <= 22.0\nentropy = 0.896\nsamples = 16\nvalue = [5, 11]"] ;
219 -> 220 ;
221 [label="entropy = 0.0\nsamples = 1\nvalue = [1, 0]"] ;
220 -> 221 ;
222 [label="X[0] <= 49.5\nentropy = 0.837\nsamples = 15\nvalue = [4, 11]"] ;
220 -> 222 ;
223 [label="X[0] <= 27.5\nentropy = 0.75\nsamples = 14\nvalue = [3, 11]"] ;
222 -> 223 ;
224 [label="entropy = 0.0\nsamples = 3\nvalue = [0, 3]"] ;
223 -> 224 ;
225 [label="X[0] <= 28.85\nentropy = 0.845\nsamples = 11\nvalue = [3, 8]"] ;
223 -> 225 ;
226 [label="entropy = 0.0\nsamples = 1\nvalue = [1, 0]"] ;
225 -> 226 ;
227 [label="X[0] <= 39.5\nentropy = 0.722\nsamples = 10\nvalue = [2, 8]"] ;
225 -> 227 ;
228 [label="X[0] <= 34.5\nentropy = 0.811\nsamples = 8\nvalue = [2, 6]"] ;
227 -> 228 ;
229 [label="X[0] <= 30.35\nentropy = 0.65\nsamples = 6\nvalue = [1, 5]"] ;
228 -> 229 ;
230 [label="entropy = 0.918\nsamples = 3\nvalue = [1, 2]"] ;
229 -> 230 ;
231 [label="entropy = 0.0\nsamples = 3\nvalue = [0, 3]"] ;
229 -> 231 ;
232 [label="X[5] <= 0.5\nentropy = 1.0\nsamples = 2\nvalue = [1, 1]"] ;
228 -> 232 ;
233 [label="entropy = 0.0\nsamples = 1\nvalue = [1, 0]"] ;
232 -> 233 ;
234 [label="entropy = 0.0\nsamples = 1\nvalue = [0, 1]"] ;
232 -> 234 ;
235 [label="entropy = 0.0\nsamples = 2\nvalue = [0, 2]"] ;
227 -> 235 ;
236 [label="entropy = 0.0\nsamples = 1\nvalue = [1, 0]"] ;
222 -> 236 ;
237 [label="X[4] <= 379.925\nentropy = 0.888\nsamples = 36\nvalue = [25, 11]"] ;
219 -> 237 ;
238 [label="X[4] <= 134.642\nentropy = 0.834\nsamples = 34\nvalue = [25, 9]"] ;
237 -> 238 ;
239 [label="X[4] <= 86.29\nentropy = 0.906\nsamples = 28\nvalue = [19, 9]"] ;
238 -> 239 ;
240 [label="X[3] <= 0.5\nentropy = 0.65\nsamples = 18\nvalue = [15, 3]"] ;
239 -> 240 ;
241 [label="X[4] <= 77.965\nentropy = 0.985\nsamples = 7\nvalue = [4, 3]"] ;
240 -> 241 ;
242 [label="X[0] <= 49.5\nentropy = 0.811\nsamples = 4\nvalue = [1, 3]"] ;
241 -> 242 ;
243 [label="entropy = 0.0\nsamples = 3\nvalue = [0, 3]"] ;
242 -> 243 ;
244 [label="entropy = 0.0\nsamples = 1\nvalue = [1, 0]"] ;
242 -> 244 ;
245 [label="entropy = 0.0\nsamples = 3\nvalue = [3, 0]"] ;
241 -> 245 ;
246 [label="entropy = 0.0\nsamples = 11\nvalue = [11, 0]"] ;
240 -> 246 ;
247 [label="X[3] <= 0.5\nentropy = 0.971\nsamples = 10\nvalue = [4, 6]"] ;
239 -> 247 ;
248 [label="X[5] <= 1.5\nentropy = 0.985\nsamples = 7\nvalue = [4, 3]"] ;
247 -> 248 ;
249 [label="X[4] <= 98.752\nentropy = 0.918\nsamples = 6\nvalue = [4, 2]"] ;
248 -> 249 ;
250 [label="X[2] <= 0.5\nentropy = 0.918\nsamples = 3\nvalue = [1, 2]"] ;
249 -> 250 ;
251 [label="entropy = 0.0\nsamples = 2\nvalue = [0, 2]"] ;
250 -> 251 ;
252 [label="entropy = 0.0\nsamples = 1\nvalue = [1, 0]"] ;
250 -> 252 ;
253 [label="entropy = 0.0\nsamples = 3\nvalue = [3, 0]"] ;
249 -> 253 ;
254 [label="entropy = 0.0\nsamples = 1\nvalue = [0, 1]"] ;
248 -> 254 ;
255 [label="entropy = 0.0\nsamples = 3\nvalue = [0, 3]"] ;
247 -> 255 ;
256 [label="entropy = 0.0\nsamples = 6\nvalue = [6, 0]"] ;
238 -> 256 ;
257 [label="entropy = 0.0\nsamples = 2\nvalue = [0, 2]"] ;
237 -> 257 ;
258 [label="X[0] <= 75.5\nentropy = 0.575\nsamples = 22\nvalue = [19, 3]"] ;
180 -> 258 ;
259 [label="X[3] <= 0.5\nentropy = 0.454\nsamples = 21\nvalue = [19, 2]"] ;
258 -> 259 ;
260 [label="X[9] <= 0.5\nentropy = 0.811\nsamples = 8\nvalue = [6, 2]"] ;
259 -> 260 ;
261 [label="X[0] <= 57.0\nentropy = 0.592\nsamples = 7\nvalue = [6, 1]"] ;
260 -> 261 ;
262 [label="X[4] <= 33.098\nentropy = 1.0\nsamples = 2\nvalue = [1, 1]"] ;
261 -> 262 ;
263 [label="entropy = 0.0\nsamples = 1\nvalue = [1, 0]"] ;
262 -> 263 ;
264 [label="entropy = 0.0\nsamples = 1\nvalue = [0, 1]"] ;
262 -> 264 ;
265 [label="entropy = 0.0\nsamples = 5\nvalue = [5, 0]"] ;
261 -> 265 ;
266 [label="entropy = 0.0\nsamples = 1\nvalue = [0, 1]"] ;
260 -> 266 ;
267 [label="entropy = 0.0\nsamples = 13\nvalue = [13, 0]"] ;
259 -> 267 ;
268 [label="entropy = 0.0\nsamples = 1\nvalue = [0, 1]"] ;
258 -> 268 ;
269 [label="X[0] <= 3.5\nentropy = 0.258\nsamples = 23\nvalue = [22, 1]"] ;
175 -> 269 ;
270 [label="X[0] <= 2.5\nentropy = 0.722\nsamples = 5\nvalue = [4, 1]"] ;
269 -> 270 ;
271 [label="entropy = 0.0\nsamples = 4\nvalue = [4, 0]"] ;
270 -> 271 ;
272 [label="entropy = 0.0\nsamples = 1\nvalue = [0, 1]"] ;
270 -> 272 ;
273 [label="entropy = 0.0\nsamples = 18\nvalue = [18, 0]"] ;
269 -> 273 ;
274 [label="X[6] <= 2.5\nentropy = 0.824\nsamples = 314\nvalue = [81, 233]"] ;
0 -> 274 [labeldistance=2.5, labelangle=-45, headlabel="False"] ;
275 [label="X[4] <= 28.856\nentropy = 0.299\nsamples = 170\nvalue = [9, 161]"] ;
274 -> 275 ;
276 [label="X[4] <= 28.231\nentropy = 0.469\nsamples = 70\nvalue = [7, 63]"] ;
275 -> 276 ;
277 [label="X[0] <= 23.5\nentropy = 0.426\nsamples = 69\nvalue = [6, 63]"] ;
276 -> 277 ;
278 [label="entropy = 0.0\nsamples = 15\nvalue = [0, 15]"] ;
277 -> 278 ;
279 [label="X[0] <= 27.5\nentropy = 0.503\nsamples = 54\nvalue = [6, 48]"] ;
277 -> 279 ;
280 [label="X[0] <= 25.5\nentropy = 0.845\nsamples = 11\nvalue = [3, 8]"] ;
279 -> 280 ;
281 [label="X[4] <= 13.75\nentropy = 0.592\nsamples = 7\nvalue = [1, 6]"] ;
280 -> 281 ;
282 [label="entropy = 1.0\nsamples = 2\nvalue = [1, 1]"] ;
281 -> 282 ;
283 [label="entropy = 0.0\nsamples = 5\nvalue = [0, 5]"] ;
281 -> 283 ;
284 [label="X[4] <= 17.429\nentropy = 1.0\nsamples = 4\nvalue = [2, 2]"] ;
280 -> 284 ;
285 [label="entropy = 0.0\nsamples = 2\nvalue = [0, 2]"] ;
284 -> 285 ;
286 [label="entropy = 0.0\nsamples = 2\nvalue = [2, 0]"] ;
284 -> 286 ;
287 [label="X[0] <= 37.0\nentropy = 0.365\nsamples = 43\nvalue = [3, 40]"] ;
279 -> 287 ;
288 [label="entropy = 0.0\nsamples = 24\nvalue = [0, 24]"] ;
287 -> 288 ;
289 [label="X[0] <= 39.0\nentropy = 0.629\nsamples = 19\nvalue = [3, 16]"] ;
287 -> 289 ;
290 [label="entropy = 0.0\nsamples = 1\nvalue = [1, 0]"] ;
289 -> 290 ;
291 [label="X[0] <= 56.0\nentropy = 0.503\nsamples = 18\nvalue = [2, 16]"] ;
289 -> 291 ;
292 [label="X[9] <= 0.5\nentropy = 0.337\nsamples = 16\nvalue = [1, 15]"] ;
291 -> 292 ;
293 [label="entropy = 0.0\nsamples = 12\nvalue = [0, 12]"] ;
292 -> 293 ;
294 [label="X[0] <= 44.5\nentropy = 0.811\nsamples = 4\nvalue = [1, 3]"] ;
292 -> 294 ;
295 [label="X[0] <= 43.0\nentropy = 1.0\nsamples = 2\nvalue = [1, 1]"] ;
294 -> 295 ;
296 [label="entropy = 0.0\nsamples = 1\nvalue = [0, 1]"] ;
295 -> 296 ;
297 [label="entropy = 0.0\nsamples = 1\nvalue = [1, 0]"] ;
295 -> 297 ;
298 [label="entropy = 0.0\nsamples = 2\nvalue = [0, 2]"] ;
294 -> 298 ;
299 [label="X[6] <= 1.5\nentropy = 1.0\nsamples = 2\nvalue = [1, 1]"] ;
291 -> 299 ;
300 [label="entropy = 0.0\nsamples = 1\nvalue = [0, 1]"] ;
299 -> 300 ;
301 [label="entropy = 0.0\nsamples = 1\nvalue = [1, 0]"] ;
299 -> 301 ;
302 [label="entropy = 0.0\nsamples = 1\nvalue = [1, 0]"] ;
276 -> 302 ;
303 [label="X[0] <= 2.5\nentropy = 0.141\nsamples = 100\nvalue = [2, 98]"] ;
275 -> 303 ;
304 [label="entropy = 0.0\nsamples = 1\nvalue = [1, 0]"] ;
303 -> 304 ;
305 [label="X[5] <= 1.5\nentropy = 0.081\nsamples = 99\nvalue = [1, 98]"] ;
303 -> 305 ;
306 [label="entropy = 0.0\nsamples = 84\nvalue = [0, 84]"] ;
305 -> 306 ;
307 [label="X[0] <= 24.5\nentropy = 0.353\nsamples = 15\nvalue = [1, 14]"] ;
305 -> 307 ;
308 [label="entropy = 0.0\nsamples = 10\nvalue = [0, 10]"] ;
307 -> 308 ;
309 [label="X[0] <= 28.0\nentropy = 0.722\nsamples = 5\nvalue = [1, 4]"] ;
307 -> 309 ;
310 [label="entropy = 0.0\nsamples = 1\nvalue = [1, 0]"] ;
309 -> 310 ;
311 [label="entropy = 0.0\nsamples = 4\nvalue = [0, 4]"] ;
309 -> 311 ;
312 [label="X[4] <= 23.35\nentropy = 1.0\nsamples = 144\nvalue = [72, 72]"] ;
274 -> 312 ;
313 [label="X[0] <= 36.5\nentropy = 0.977\nsamples = 117\nvalue = [48, 69]"] ;
312 -> 313 ;
314 [label="X[3] <= 0.5\nentropy = 0.959\nsamples = 110\nvalue = [42, 68]"] ;
313 -> 314 ;
315 [label="X[4] <= 15.621\nentropy = 0.86\nsamples = 53\nvalue = [15, 38]"] ;
314 -> 315 ;
316 [label="X[4] <= 13.935\nentropy = 0.918\nsamples = 45\nvalue = [15, 30]"] ;
315 -> 316 ;
317 [label="X[0] <= 17.0\nentropy = 0.758\nsamples = 32\nvalue = [7, 25]"] ;
316 -> 317 ;
318 [label="entropy = 0.0\nsamples = 7\nvalue = [0, 7]"] ;
317 -> 318 ;
319 [label="X[4] <= 6.987\nentropy = 0.855\nsamples = 25\nvalue = [7, 18]"] ;
317 -> 319 ;
320 [label="entropy = 0.0\nsamples = 1\nvalue = [1, 0]"] ;
319 -> 320 ;
321 [label="X[5] <= 1.0\nentropy = 0.811\nsamples = 24\nvalue = [6, 18]"] ;
319 -> 321 ;
322 [label="X[4] <= 8.008\nentropy = 0.755\nsamples = 23\nvalue = [5, 18]"] ;
321 -> 322 ;
323 [label="X[0] <= 30.1\nentropy = 0.684\nsamples = 22\nvalue = [4, 18]"] ;
322 -> 323 ;
324 [label="X[4] <= 7.769\nentropy = 0.592\nsamples = 21\nvalue = [3, 18]"] ;
323 -> 324 ;
325 [label="X[0] <= 21.5\nentropy = 0.722\nsamples = 15\nvalue = [3, 12]"] ;
324 -> 325 ;
326 [label="entropy = 0.0\nsamples = 1\nvalue = [1, 0]"] ;
325 -> 326 ;
327 [label="X[4] <= 7.681\nentropy = 0.592\nsamples = 14\nvalue = [2, 12]"] ;
325 -> 327 ;
328 [label="X[1] <= 0.5\nentropy = 0.918\nsamples = 3\nvalue = [1, 2]"] ;
327 -> 328 ;
329 [label="entropy = 0.0\nsamples = 1\nvalue = [1, 0]"] ;
328 -> 329 ;
330 [label="entropy = 0.0\nsamples = 2\nvalue = [0, 2]"] ;
328 -> 330 ;
331 [label="X[4] <= 7.744\nentropy = 0.439\nsamples = 11\nvalue = [1, 10]"] ;
327 -> 331 ;
332 [label="entropy = 0.0\nsamples = 2\nvalue = [0, 2]"] ;
331 -> 332 ;
333 [label="X[0] <= 25.85\nentropy = 0.503\nsamples = 9\nvalue = [1, 8]"] ;
331 -> 333 ;
334 [label="entropy = 0.0\nsamples = 1\nvalue = [0, 1]"] ;
333 -> 334 ;
335 [label="entropy = 0.544\nsamples = 8\nvalue = [1, 7]"] ;
333 -> 335 ;
336 [label="entropy = 0.0\nsamples = 6\nvalue = [0, 6]"] ;
324 -> 336 ;
337 [label="entropy = 0.0\nsamples = 1\nvalue = [1, 0]"] ;
323 -> 337 ;
338 [label="entropy = 0.0\nsamples = 1\nvalue = [1, 0]"] ;
322 -> 338 ;
339 [label="entropy = 0.0\nsamples = 1\nvalue = [1, 0]"] ;
321 -> 339 ;
340 [label="X[4] <= 15.373\nentropy = 0.961\nsamples = 13\nvalue = [8, 5]"] ;
316 -> 340 ;
341 [label="X[0] <= 29.35\nentropy = 0.764\nsamples = 9\nvalue = [7, 2]"] ;
340 -> 341 ;
342 [label="X[0] <= 23.5\nentropy = 0.918\nsamples = 6\nvalue = [4, 2]"] ;
341 -> 342 ;
343 [label="X[9] <= 0.5\nentropy = 0.722\nsamples = 5\nvalue = [4, 1]"] ;
342 -> 343 ;
344 [label="entropy = 0.0\nsamples = 2\nvalue = [2, 0]"] ;
343 -> 344 ;
345 [label="X[0] <= 14.75\nentropy = 0.918\nsamples = 3\nvalue = [2, 1]"] ;
343 -> 345 ;
346 [label="entropy = 0.0\nsamples = 2\nvalue = [2, 0]"] ;
345 -> 346 ;
347 [label="entropy = 0.0\nsamples = 1\nvalue = [0, 1]"] ;
345 -> 347 ;
348 [label="entropy = 0.0\nsamples = 1\nvalue = [0, 1]"] ;
342 -> 348 ;
349 [label="entropy = 0.0\nsamples = 3\nvalue = [3, 0]"] ;
341 -> 349 ;
350 [label="X[5] <= 0.5\nentropy = 0.811\nsamples = 4\nvalue = [1, 3]"] ;
340 -> 350 ;
351 [label="entropy = 0.0\nsamples = 3\nvalue = [0, 3]"] ;
350 -> 351 ;
352 [label="entropy = 0.0\nsamples = 1\nvalue = [1, 0]"] ;
350 -> 352 ;
353 [label="entropy = 0.0\nsamples = 8\nvalue = [0, 8]"] ;
315 -> 353 ;
354 [label="X[0] <= 32.0\nentropy = 0.998\nsamples = 57\nvalue = [27, 30]"] ;
314 -> 354 ;
355 [label="X[4] <= 7.763\nentropy = 1.0\nsamples = 54\nvalue = [27, 27]"] ;
354 -> 355 ;
356 [label="X[0] <= 26.35\nentropy = 0.65\nsamples = 6\nvalue = [1, 5]"] ;
355 -> 356 ;
357 [label="entropy = 0.0\nsamples = 5\nvalue = [0, 5]"] ;
356 -> 357 ;
358 [label="entropy = 0.0\nsamples = 1\nvalue = [1, 0]"] ;
356 -> 358 ;
359 [label="X[4] <= 10.825\nentropy = 0.995\nsamples = 48\nvalue = [26, 22]"] ;
355 -> 359 ;
360 [label="X[4] <= 10.152\nentropy = 0.918\nsamples = 27\nvalue = [18, 9]"] ;
359 -> 360 ;
361 [label="X[5] <= 0.5\nentropy = 0.954\nsamples = 24\nvalue = [15, 9]"] ;
360 -> 361 ;
362 [label="X[4] <= 9.84\nentropy = 0.902\nsamples = 22\nvalue = [15, 7]"] ;
361 -> 362 ;
363 [label="X[4] <= 8.767\nentropy = 0.863\nsamples = 21\nvalue = [15, 6]"] ;
362 -> 363 ;
364 [label="X[4] <= 8.673\nentropy = 0.937\nsamples = 17\nvalue = [11, 6]"] ;
363 -> 364 ;
365 [label="X[0] <= 27.5\nentropy = 0.896\nsamples = 16\nvalue = [11, 5]"] ;
364 -> 365 ;
366 [label="X[0] <= 25.5\nentropy = 0.994\nsamples = 11\nvalue = [6, 5]"] ;
365 -> 366 ;
367 [label="X[0] <= 22.5\nentropy = 0.811\nsamples = 8\nvalue = [6, 2]"] ;
366 -> 367 ;
368 [label="X[0] <= 18.5\nentropy = 0.971\nsamples = 5\nvalue = [3, 2]"] ;
367 -> 368 ;
369 [label="entropy = 0.0\nsamples = 2\nvalue = [2, 0]"] ;
368 -> 369 ;
370 [label="X[4] <= 8.258\nentropy = 0.918\nsamples = 3\nvalue = [1, 2]"] ;
368 -> 370 ;
371 [label="entropy = 0.0\nsamples = 2\nvalue = [0, 2]"] ;
370 -> 371 ;
372 [label="entropy = 0.0\nsamples = 1\nvalue = [1, 0]"] ;
370 -> 372 ;
373 [label="entropy = 0.0\nsamples = 3\nvalue = [3, 0]"] ;
367 -> 373 ;
374 [label="entropy = 0.0\nsamples = 3\nvalue = [0, 3]"] ;
366 -> 374 ;
375 [label="entropy = 0.0\nsamples = 5\nvalue = [5, 0]"] ;
365 -> 375 ;
376 [label="entropy = 0.0\nsamples = 1\nvalue = [0, 1]"] ;
364 -> 376 ;
377 [label="entropy = 0.0\nsamples = 4\nvalue = [4, 0]"] ;
363 -> 377 ;
378 [label="entropy = 0.0\nsamples = 1\nvalue = [0, 1]"] ;
362 -> 378 ;
379 [label="entropy = 0.0\nsamples = 2\nvalue = [0, 2]"] ;
361 -> 379 ;
380 [label="entropy = 0.0\nsamples = 3\nvalue = [3, 0]"] ;
360 -> 380 ;
381 [label="X[4] <= 17.25\nentropy = 0.959\nsamples = 21\nvalue = [8, 13]"] ;
359 -> 381 ;
382 [label="X[9] <= 0.5\nentropy = 0.619\nsamples = 13\nvalue = [2, 11]"] ;
381 -> 382 ;
383 [label="entropy = 0.0\nsamples = 6\nvalue = [0, 6]"] ;
382 -> 383 ;
384 [label="X[0] <= 25.0\nentropy = 0.863\nsamples = 7\nvalue = [2, 5]"] ;
382 -> 384 ;
385 [label="entropy = 0.0\nsamples = 3\nvalue = [0, 3]"] ;
384 -> 385 ;
386 [label="X[0] <= 28.85\nentropy = 1.0\nsamples = 4\nvalue = [2, 2]"] ;
384 -> 386 ;
387 [label="entropy = 0.0\nsamples = 2\nvalue = [2, 0]"] ;
386 -> 387 ;
388 [label="entropy = 0.0\nsamples = 2\nvalue = [0, 2]"] ;
386 -> 388 ;
389 [label="X[4] <= 21.55\nentropy = 0.811\nsamples = 8\nvalue = [6, 2]"] ;
381 -> 389 ;
390 [label="X[0] <= 30.0\nentropy = 0.592\nsamples = 7\nvalue = [6, 1]"] ;
389 -> 390 ;
391 [label="entropy = 0.0\nsamples = 5\nvalue = [5, 0]"] ;
390 -> 391 ;
392 [label="X[4] <= 19.262\nentropy = 1.0\nsamples = 2\nvalue = [1, 1]"] ;
390 -> 392 ;
393 [label="entropy = 0.0\nsamples = 1\nvalue = [1, 0]"] ;
392 -> 393 ;
394 [label="entropy = 0.0\nsamples = 1\nvalue = [0, 1]"] ;
392 -> 394 ;
395 [label="entropy = 0.0\nsamples = 1\nvalue = [0, 1]"] ;
389 -> 395 ;
396 [label="entropy = 0.0\nsamples = 3\nvalue = [0, 3]"] ;
354 -> 396 ;
397 [label="X[0] <= 55.0\nentropy = 0.592\nsamples = 7\nvalue = [6, 1]"] ;
313 -> 397 ;
398 [label="entropy = 0.0\nsamples = 6\nvalue = [6, 0]"] ;
397 -> 398 ;
399 [label="entropy = 0.0\nsamples = 1\nvalue = [0, 1]"] ;
397 -> 399 ;
400 [label="X[5] <= 0.5\nentropy = 0.503\nsamples = 27\nvalue = [24, 3]"] ;
312 -> 400 ;
401 [label="entropy = 0.0\nsamples = 1\nvalue = [0, 1]"] ;
400 -> 401 ;
402 [label="X[4] <= 31.331\nentropy = 0.391\nsamples = 26\nvalue = [24, 2]"] ;
400 -> 402 ;
403 [label="entropy = 0.0\nsamples = 15\nvalue = [15, 0]"] ;
402 -> 403 ;
404 [label="X[4] <= 32.881\nentropy = 0.684\nsamples = 11\nvalue = [9, 2]"] ;
402 -> 404 ;
405 [label="entropy = 0.0\nsamples = 2\nvalue = [0, 2]"] ;
404 -> 405 ;
406 [label="entropy = 0.0\nsamples = 9\nvalue = [9, 0]"] ;
404 -> 406 ;
}
